float conv1_w[20][5][5] =
    {{{-0.16045065224170685, -0.13193397223949432, -0.36808428168296814,
       -0.3787675201892853, -0.11223643273115158},
      {0.35983291268348694, 0.2749219834804535, 0.2527555227279663,
       -0.3803187608718872, -0.09165837615728378},
      {0.0605069175362587, 0.2743830680847168, 0.38043874502182007,
       0.12181933224201202, 0.014284881763160229},
      {-0.2354559749364853, 0.2473587542772293, 0.26289650797843933,
       -0.0760749951004982, 0.0928516685962677},
      {-0.19834913313388824, 0.3223426640033722, 0.4298223853111267,
       0.3588203191757202, 0.42916032671928406}},
     {{-0.3031602203845978, -0.19807466864585876, -0.3421797454357147,
       -0.012365789152681828, 0.07458143681287766},
      {0.14811980724334717, -0.16231995820999146, 0.011385622434318066,
       0.315224289894104, 0.26864197850227356},
      {-0.17205815017223358, 0.0381806418299675, -0.30929306149482727,
       -0.2394903600215912, 0.1307271271944046},
      {-0.00036434034700505435, 0.2305905818939209, -0.019384026527404785,
       -0.004458785057067871, 0.09520052373409271},
      {-0.3400188386440277, -0.07681873440742493, 0.05900830402970314,
       0.3082730770111084, 0.2802160978317261}},
     {{-0.30450981855392456, -0.2875852584838867, 0.08117790520191193,
       -0.028087887912988663, -0.3270721435546875},
      {0.0993889793753624, 0.004769444465637207, 0.15950480103492737,
       -0.11858203262090683, 0.12480875849723816},
      {0.06571720540523529, -0.19468998908996582, -0.061170730739831924,
       0.2750864624977112, -0.24251411855220795},
      {0.20884770154953003, 0.3158044219017029, -0.2723352909088135,
       -0.3329382836818695, -0.265087753534317},
      {-0.03643898665904999, -0.25172266364097595, -0.2808437645435333,
       0.09359582513570786, -0.328012079000473}},
     {{0.335178405046463, -0.2873034179210663, 0.030800748616456985,
       -0.008119570091366768, 0.074425108730793},
      {-0.3579723536968231, -0.23073147237300873, 0.07995998859405518,
       0.3101828396320343, 0.18239755928516388},
      {-0.16736601293087006, -0.2843794524669647, -0.09880626946687698,
       0.28877022862434387, 0.21164976060390472},
      {-0.04193085804581642, -0.3201749324798584, 0.2812979817390442,
       -0.19733554124832153, -0.36503735184669495},
      {0.15899348258972168, -0.035212356597185135, -0.35927337408065796,
       -0.3178953230381012, -0.2944330871105194}},
     {{-0.13882777094841003, -0.22731421887874603, 0.11431889235973358,
       0.13504120707511902, -0.20810489356517792},
      {0.011021830141544342, 0.09713926911354065, -0.2784223258495331,
       -0.29127076268196106, -0.01275474950671196},
      {-0.3018631637096405, -0.10656225681304932, -0.33418747782707214,
       0.21662862598896027, 0.31541991233825684},
      {0.2320125252008438, -0.11074697971343994, 0.009796066209673882,
       0.032854463905096054, 0.18515220284461975},
      {-0.15448302030563354, 0.35621750354766846, 0.40918320417404175,
       0.2638857364654541, 0.40468281507492065}},
     {{-0.07196444272994995, 0.28196007013320923, -0.03534552827477455,
       0.2135937213897705, -0.2527400553226471},
      {0.017314322292804718, -0.21612821519374847, -0.025814397260546684,
       -0.018051007762551308, 0.28331637382507324},
      {-0.09095816314220428, 0.3041606843471527, 0.31272515654563904,
       -0.3146030306816101, 0.024644233286380768},
      {-0.038735177367925644, 0.37339305877685547, 0.19955413043498993,
       0.014499676413834095, -0.06190163269639015},
      {-0.2527898848056793, 0.2508845627307892, 0.011837218888103962,
       -0.18699535727500916, -0.22638200223445892}},
     {{-0.37607771158218384, 0.09007179737091064, -0.02698160521686077,
       0.3070714771747589, 0.09743116796016693},
      {-0.31720349192619324, -0.11776155233383179, -0.23044535517692566,
       0.2735581696033478, 0.22926051914691925},
      {0.27596375346183777, 0.28236836194992065, -0.21256564557552338,
       0.03540939465165138, 0.1899440586566925},
      {-0.1981944590806961, 0.046569280326366425, 0.1232268288731575,
       -0.20413838326931, 0.35514578223228455},
      {0.2556246221065521, 0.15610910952091217, -0.028236623853445053,
       -0.008234366774559021, 0.22189857065677643}},
     {{0.264230877161026, 0.15268437564373016, 0.4317307770252228,
       0.304630309343338, 0.3222405016422272},
      {0.04521068185567856, 0.2553829848766327, 0.09992266446352005,
       0.1921064704656601, -0.3014470338821411},
      {-0.3107481002807617, 0.01647775247693062, -0.263948917388916,
       -0.29958993196487427, -0.2840334475040436},
      {-0.37782564759254456, 0.267982542514801, 0.11150089651346207,
       -0.25503623485565186, 0.05601658299565315},
      {-0.1663808673620224, -0.1431991457939148, 0.24682901799678802,
       -0.22820362448692322, -0.09197063744068146}},
     {{0.32725217938423157, 0.05946926027536392, -0.1988193839788437,
       0.067842997610569, -0.1140356957912445},
      {0.17412987351417542, -0.2841799259185791, 0.15228630602359772,
       0.35270506143569946, 0.10136143118143082},
      {0.2577401399612427, -0.22681254148483276, 0.21344880759716034,
       0.17691005766391754, 0.16353808343410492},
      {-0.14287254214286804, -0.20668479800224304, -0.25738102197647095,
       -0.26415684819221497, 0.21320286393165588},
      {0.2909458875656128, -0.21092598140239716, -0.002130284905433655,
       -0.18018291890621185, -0.1721632033586502}},
     {{-0.023190682753920555, -0.1811061054468155, 0.1671472042798996,
       -0.29133763909339905, -0.06246902421116829},
      {-0.07914181798696518, 0.30246701836586, 0.2227921038866043,
       -0.13927322626113892, -0.3531007170677185},
      {-0.08381959795951843, -0.060087937861680984, -0.04992862418293953,
       -0.31646841764450073, -0.30142149329185486},
      {0.06748964637517929, -0.05150512605905533, -0.34713855385780334,
       -0.17477186024188995, 0.1943574696779251},
      {0.3455484211444855, -0.33973631262779236, 0.06353413313627243,
       -0.33764541149139404, -0.38525155186653137}},
     {{0.17110830545425415, -0.07050839066505432, -0.15366949141025543,
       0.17706316709518433, -0.061954982578754425},
      {-0.33507224917411804, -0.28021925687789917, -0.03160731866955757,
       -0.023697994649410248, -0.2310134321451187},
      {-0.2917996942996979, -0.24091246724128723, 0.04800277575850487,
       -0.05670895799994469, 0.20716145634651184},
      {0.17290610074996948, 0.3865100145339966, 0.3025816082954407,
       0.13951362669467926, -0.22186940908432007},
      {0.0005355149041861296, 0.10007911920547485, 0.10775507241487503,
       0.0404311865568161, 0.2043135166168213}},
     {{0.3065843880176544, 0.3014466464519501, -0.05552898719906807,
       0.23400883376598358, 0.35662394762039185},
      {0.39004698395729065, 0.29610151052474976, 0.27596965432167053,
       -0.0157752837985754, -0.030478913336992264},
      {-0.22133833169937134, 0.2968301773071289, 0.1701507568359375,
       -0.10843317955732346, -0.21823333203792572},
      {0.09586996585130692, 0.2130482792854309, 0.005001143552362919,
       -0.19519682228565216, -0.21231335401535034},
      {-0.05350566282868385, -0.024604426696896553, -0.05428234115242958,
       0.12456326931715012, -0.03000982291996479}},
     {{0.09785939007997513, 0.3034200370311737, -0.10631927847862244,
       -0.2692854404449463, 0.10447652637958527},
      {-0.11299919337034225, 0.30483150482177734, 0.3151141107082367,
       0.24115104973316193, -0.3077618479728699},
      {-0.15133678913116455, 0.43564659357070923, -0.14822368323802948,
       -0.2405649721622467, 0.19312499463558197},
      {0.27680522203445435, 0.19080960750579834, 0.353517085313797,
       -0.3110131323337555, -0.28898271918296814},
      {-0.1225317120552063, 0.31532374024391174, 0.14277665317058563,
       0.35205185413360596, -0.15994498133659363}},
     {{0.3561386168003082, 0.09748921543359756, 0.17976759374141693,
       -0.017438435927033424, 0.35139819979667664},
      {0.2780836820602417, 0.23538541793823242, -0.08107718825340271,
       0.2060360312461853, 0.20034360885620117},
      {0.11430712044239044, 0.1714964210987091, -0.14177443087100983,
       0.2839544713497162, -0.12342113256454468},
      {0.0677877888083458, -0.11917461454868317, -0.038823310285806656,
       0.08044672757387161, -0.2739846706390381},
      {0.20257185399532318, 0.19483256340026855, 0.0886664167046547,
       -0.13997793197631836, -0.09455008804798126}},
     {{-0.1810295432806015, -0.3273875415325165, 0.06457851082086563,
       0.1674235761165619, 0.290260910987854},
      {-0.04103214293718338, -0.0313149020075798, 0.13125547766685486,
       0.014443360269069672, -0.3664685785770416},
      {0.15284807980060577, 0.17620892822742462, 0.16887213289737701,
       -0.31932076811790466, -0.26302698254585266},
      {0.08293686807155609, 0.07466365396976471, -0.09726967662572861,
       -0.09102913737297058, -0.250402569770813},
      {-0.107769675552845, 0.4058586061000824, 0.2370358109474182,
       -0.12731850147247314, -0.03034295327961445}},
     {{-0.19939947128295898, 0.18370233476161957, 0.2123313695192337,
       -0.2322794497013092, 0.32666081190109253},
      {-0.2867705821990967, 0.16738538444042206, 0.04089359939098358,
       -0.2363480031490326, -0.3039861023426056},
      {0.0770939514040947, 0.2574666738510132, 0.17663629353046417,
       -0.1452048122882843, -0.13013647496700287},
      {0.04811533913016319, 0.027549443766474724, -0.22824731469154358,
       0.07101516425609589, -0.26035627722740173},
      {0.17732858657836914, -0.2494364231824875, 0.25960680842399597,
       -0.3424866199493408, 0.14118453860282898}},
     {{-0.11899813264608383, -0.13989701867103577, -0.1615632325410843,
       0.09647567570209503, -0.36122387647628784},
      {-0.2335994988679886, -0.10959982872009277, -0.2156442552804947,
       -0.12200306355953217, 0.014431518502533436},
      {0.07359299063682556, -0.16330040991306305, 0.16091199219226837,
       -0.24076241254806519, 0.28506016731262207},
      {0.2531117796897888, 0.11607691645622253, 0.10912344604730606,
       -0.06969331949949265, 0.18618135154247284},
      {0.11965335160493851, 0.13123208284378052, 0.28793296217918396,
       -0.09947210550308228, -0.1360252946615219}},
     {{0.34605953097343445, 0.1210620105266571, 0.2663658857345581,
       -0.24307681620121002, -0.2961222529411316},
      {0.06562107056379318, -0.01789299212396145, -0.2218058854341507,
       0.2375064343214035, -0.18567603826522827},
      {0.0393204502761364, -0.3212744891643524, 0.10587166249752045,
       0.07709486782550812, -0.22913718223571777},
      {-0.3561241626739502, 0.18336716294288635, -0.2925061285495758,
       -0.055524397641420364, -0.2851105332374573},
      {0.31250235438346863, -0.2609010636806488, -0.0983930453658104,
       0.14527301490306854, -0.19072222709655762}},
     {{0.20660826563835144, 0.22887353599071503, -0.15771880745887756,
       0.3099944591522217, 0.24965529143810272},
      {0.2988779842853546, -0.2509189248085022, -0.29776355624198914,
       0.127061128616333, 0.011339955031871796},
      {-0.07957600802183151, 0.27279677987098694, -0.04347805306315422,
       -0.011484632268548012, 0.08315441757440567},
      {0.12205833196640015, -0.24261751770973206, -0.2069055736064911,
       -0.10932236909866333, -0.2915817201137543},
      {-0.004633402451872826, -0.2796545624732971, -0.30885055661201477,
       0.23615548014640808, -0.024881144985556602}},
     {{-0.2658696472644806, -0.11614770442247391, 0.0182036180049181,
       -0.0874030664563179, -0.22822925448417664},
      {-0.214908629655838, 0.036213576793670654, -0.3730389177799225,
       -0.34054189920425415, -0.15041476488113403},
      {-0.30293402075767517, 0.22038549184799194, 0.15197989344596863,
       0.23755888640880585, 0.0933358445763588},
      {0.12557458877563477, -0.073660708963871, 0.2609410285949707,
       -0.03928304836153984, 0.14091156423091888},
      {-0.18272003531455994, -0.021726951003074646, -0.2428755909204483,
       -0.29631760716438293, -0.16606245934963226}}};

float conv1_b[20] = {
    -0.374709814787,  -0.10630774498,   0.0529367811978,  0.00945861730725,
    -0.231043368578,  -0.0668440461159, -0.201808080077,  -0.0399141423404,
    -0.213600441813,  0.0652959793806,  -0.0724144428968, -0.342592269182,
    -0.0716009438038, -0.198056668043,  -0.182519212365,  0.0154387811199,
    -0.0919685959816, -0.0253213439137, -0.151817068458,  0.243262723088};
