float conv1_w[20][5][5] = {
    {{0.10406551510095596, 0.08263882994651794, -0.17094199359416962,
      -0.06970233470201492, 0.03000929206609726},
     {0.28181740641593933, -0.24525319039821625, 0.37678730487823486,
      0.29014143347740173, -0.06349140405654907},
     {-0.12281007319688797, -0.03033340908586979, 0.0644044578075409,
      0.10551705956459045, -0.033135056495666504},
     {0.3405371308326721, -0.18130965530872345, 0.03358925133943558,
      0.23076631128787994, -0.013470614328980446},
     {0.21759334206581116, -0.0997304767370224, -0.19574566185474396,
      0.019161604344844818, 0.21484440565109253}},
    {{0.2042425572872162, -0.17901888489723206, -0.02685050666332245,
      -0.035319823771715164, -0.005475685000419617},
     {-0.10614845156669617, 0.4462299048900604, 0.32893630862236023,
      0.24987027049064636, -0.19353683292865753},
     {0.24208053946495056, 0.35388806462287903, 0.3662150800228119,
      0.06510447710752487, -0.053318530321121216},
     {0.23791781067848206, 0.21669067442417145, -0.029651058837771416,
      0.21550700068473816, 0.17961156368255615},
     {-0.12964841723442078, 0.17913618683815002, 0.30114954710006714,
      0.0429198294878006, 0.07383034378290176}},
    {{0.1433078497648239, -0.010719663463532925, 0.2503616511821747,
      0.08544653654098511, 0.13408450782299042},
     {-0.1421118825674057, 0.12530416250228882, 0.48823219537734985,
      0.28102076053619385, 0.25579899549484253},
     {0.28889697790145874, 0.5257179737091064, 0.26946383714675903,
      0.31509920954704285, 0.14997050166130066},
     {0.19881290197372437, 0.4536014497280121, -0.16522854566574097,
      -0.019284984096884727, -0.09198447316884995},
     {0.37531495094299316, 0.2099153995513916, 0.10451437532901764,
      0.2044941484928131, -0.3444565534591675}},
    {{0.31172358989715576, 0.37124258279800415, -0.13141992688179016,
      -0.1766062080860138, -0.32962003350257874},
     {0.2926531434059143, 0.03844296187162399, 0.16944120824337006,
      -0.1248553991317749, -0.09069760888814926},
     {0.48702189326286316, -0.0567917563021183, 0.21210116147994995,
      -0.2944422662258148, 0.16041411459445953},
     {0.39370331168174744, 0.39904457330703735, -0.0024269556161016226,
      0.02325570024549961, -0.09180856496095657},
     {-0.2335776686668396, 0.1332935243844986, 0.12286017090082169,
      0.34339776635169983, 0.02389809489250183}},
    {{0.0601029209792614, 0.07408259063959122, -0.23481200635433197,
      0.3421812653541565, -0.08901970088481903},
     {0.0593126155436039, 0.18333420157432556, 0.15402863919734955,
      0.2653203010559082, 0.13073807954788208},
     {0.35842692852020264, -0.22400601208209991, -0.008063716813921928,
      -0.292341411113739, -0.23266027867794037},
     {-0.2127648890018463, 0.30205267667770386, 0.08384326845407486,
      -0.12442932277917862, -0.0364212691783905},
     {0.029467681422829628, -0.24709488451480865, 0.33931130170822144,
      0.16822756826877594, 0.10506642609834671}},
    {{0.1119479238986969, -0.0693683847784996, 0.02435702085494995,
      0.15677443146705627, 0.18225961923599243},
     {0.14978450536727905, -0.3355386257171631, -0.15945474803447723,
      0.1345827579498291, -0.19491954147815704},
     {0.281141459941864, -0.19219931960105896, 0.20827041566371918,
      0.32661524415016174, -0.019545655697584152},
     {-0.20618484914302826, 0.18373091518878937, 0.013029826804995537,
      -0.18345463275909424, -0.014191578142344952},
     {0.31677448749542236, 0.37915661931037903, -0.036911241710186005,
      0.25452134013175964, -0.345257967710495}},
    {{-0.0030506979674100876, -0.3290286660194397, -0.030911168083548546,
      -0.1755092889070511, 0.33113008737564087},
     {0.1984202116727829, -0.20916125178337097, -0.20354165136814117,
      -0.35639235377311707, -0.022997092455625534},
     {-0.019189124926924706, 0.20520931482315063, -0.3581279218196869,
      -0.10052310675382614, 0.2665981948375702},
     {-0.3253919184207916, 0.051176518201828, 0.2461412250995636,
      -0.28868916630744934, -0.2591495215892792},
     {0.14819176495075226, -0.23566783964633942, -0.19689823687076569,
      -0.1738080084323883, 0.3041366934776306}},
    {{0.4170186519622803, 0.36930012702941895, 0.5048624873161316,
      0.10649602115154266, 0.1934511363506317},
     {0.14817243814468384, 0.3276352882385254, 0.2749776244163513,
      0.15357141196727753, 0.41295376420021057},
     {0.2812526226043701, -0.0005664295749738812, 0.23621198534965515,
      -0.0011234302073717117, -0.2401987463235855},
     {0.2750893235206604, -0.028024893254041672, -0.327588826417923,
      0.1731523871421814, 0.02099079266190529},
     {0.11853355914354324, 0.2711162865161896, -0.28145986795425415,
      -0.3129582107067108, -0.17644807696342468}},
    {{0.23990102112293243, 0.16487906873226166, -0.17651306092739105,
      0.2555145025253296, 0.10361813008785248},
     {-0.3166425824165344, 0.08830007910728455, -0.2838327884674072,
      -0.25702133774757385, -0.40641140937805176},
     {0.03153584897518158, -0.3766813576221466, -0.20764179527759552,
      -0.13200820982456207, -0.05469522997736931},
     {-0.3562065362930298, 0.008491815067827702, -0.3366546332836151,
      -0.1790323406457901, -0.20801594853401184},
     {-0.20850041508674622, -0.3667445480823517, 0.013898808509111404,
      -0.10666735470294952, -0.30094847083091736}},
    {{-0.009915776550769806, 0.41777464747428894, 0.10742897540330887,
      0.10543214529752731, 0.45616257190704346},
     {-0.2624218761920929, -0.008523678407073021, 0.24361015856266022,
      -0.33949214220046997, -0.36622023582458496},
     {-0.2856452465057373, -0.21273157000541687, -0.06816418468952179,
      -0.4349241852760315, -0.42708849906921387},
     {0.029303988441824913, -0.4299018383026123, -0.27972644567489624,
      -0.4203415513038635, -0.3109756410121918},
     {-0.1577065885066986, -0.3327969014644623, -0.0011782257352024317,
      0.18164528906345367, 0.01325983926653862}},
    {{-0.14038383960723877, 0.2936990559101105, -0.03483879566192627,
      0.02699464000761509, -0.024323061108589172},
     {0.1897328495979309, 0.36065953969955444, 0.2623308002948761,
      0.11642342805862427, -0.07278020679950714},
     {0.0885956808924675, -0.29628172516822815, -0.3087811768054962,
      -0.31822577118873596, -0.13904860615730286},
     {-0.1938115954399109, -0.298789381980896, 0.21698516607284546,
      -0.3601638674736023, -0.21993288397789001},
     {0.027324894443154335, -0.044056236743927, -0.14900216460227966,
      -0.3900848925113678, -0.27472102642059326}},
    {{0.2905096411705017, 0.2732618451118469, 0.30177390575408936,
      0.3110235035419464, -0.344655305147171},
     {0.37138092517852783, 0.13016200065612793, -0.28665634989738464,
      -0.157449409365654, -0.28959789872169495},
     {-0.15217746794223785, 0.2701800763607025, 0.3774643540382385,
      -0.20742274820804596, -0.11607414484024048},
     {-0.07636832445859909, -0.08235415816307068, 0.1630420684814453,
      -0.14315587282180786, 0.2642691433429718},
     {-0.13688553869724274, 0.32054075598716736, -0.27164968848228455,
      -0.317005455493927, 0.2746804654598236}},
    {{-0.25433823466300964, -0.1802394688129425, 0.08456403017044067,
      -0.1118781566619873, 0.2800476551055908},
     {-0.18527057766914368, -0.3805689215660095, -0.07533127814531326,
      -0.19179925322532654, -0.3674982786178589},
     {-0.44494882225990295, -0.19427093863487244, -0.4262455403804779,
      -0.20621567964553833, -0.15858709812164307},
     {-0.3139919936656952, -0.3134815990924835, -0.19712047278881073,
      -0.42135870456695557, 0.12005166709423065},
     {-0.41849106550216675, 0.08673308789730072, -0.2807800769805908,
      0.022016271948814392, -0.21979665756225586}},
    {{0.3292253911495209, -0.06329108029603958, -0.2752005159854889,
      -0.3409263789653778, -0.3872245252132416},
     {0.04872150346636772, 0.07427901774644852, -0.1283600926399231,
      -0.06377306580543518, -0.03173035383224487},
     {0.1355922669172287, 0.23267929255962372, 0.3340899348258972,
      0.03486927971243858, -0.1963243931531906},
     {-0.24178950488567352, -0.017845848575234413, 0.40707656741142273,
      0.263710618019104, 0.3678582012653351},
     {0.07716810703277588, -0.13946488499641418, -0.07220663130283356,
      0.20620004832744598, -0.13191308081150055}},
    {{0.4270485043525696, 0.3529728651046753, 0.3966257572174072,
      0.06768117100000381, -0.1480509489774704},
     {-0.27048030495643616, -0.2403942048549652, 0.1269940435886383,
      0.2804397642612457, 0.15886570513248444},
     {-0.15815643966197968, -0.29278939962387085, 0.10378971695899963,
      0.20621496438980103, 0.02868792973458767},
     {0.02353789657354355, -0.14642061293125153, -0.27672556042671204,
      0.17272067070007324, -0.026497583836317062},
     {-0.4096803069114685, -0.02927408367395401, -0.4069283902645111,
      -0.28105226159095764, 0.10656100511550903}},
    {{-0.2343146651983261, -0.12262304127216339, 0.26050683856010437,
      -0.07920845597982407, -0.008474440313875675},
     {-0.2801467776298523, -0.11492573469877243, 0.1973661631345749,
      -0.10926975309848785, -0.002122805453836918},
     {0.2806762456893921, -0.036836378276348114, -0.35373857617378235,
      -0.03364865109324455, 0.05622930824756622},
     {-0.053315166383981705, -0.18002229928970337, 0.0011771097779273987,
      -0.15279653668403625, 0.04773325100541115},
     {0.28077495098114014, 0.28958165645599365, 0.2121732085943222,
      0.12908688187599182, 0.3838781416416168}},
    {{-0.2267710566520691, -0.2954743504524231, -0.21836890280246735,
      -0.022105766460299492, 0.032925330102443695},
     {0.06374183297157288, -0.16435393691062927, -0.31549373269081116,
      -0.005072152242064476, -0.03559655323624611},
     {-0.0654149204492569, 0.04465041309595108, 0.01379932276904583,
      -0.04835643619298935, -0.1768728494644165},
     {0.11762899160385132, -0.2461816519498825, -0.01773357205092907,
      -0.1579962968826294, -0.33991608023643494},
     {0.11603879928588867, 0.3764221668243408, 0.35580185055732727,
      -0.10312602669000626, -0.0001718560524750501}},
    {{0.2797686755657196, 0.19979068636894226, -0.29445987939834595,
      -0.05580144748091698, -0.038343396037817},
     {0.01780853420495987, -0.29148849844932556, 0.076639324426651,
      -0.08857012540102005, -0.26675674319267273},
     {-0.23994407057762146, 0.3471505641937256, 0.1231580525636673,
      0.41188475489616394, 0.34941166639328003},
     {0.1557513326406479, 0.0682702511548996, -0.2383098006248474,
      0.14337265491485596, 0.21706636250019073},
     {0.13608524203300476, 0.25328704714775085, 0.058098454028367996,
      -0.08055455982685089, -0.22642330825328827}},
    {{0.2602469027042389, -0.1500789225101471, 0.369299054145813,
      0.18528440594673157, 0.48920080065727234},
     {-0.30796924233436584, 0.28979820013046265, 0.062342219054698944,
      0.270089328289032, 0.15698204934597015},
     {-0.35326623916625977, -0.09706655889749527, -0.40222543478012085,
      -0.3576720356941223, -0.17106880247592926},
     {-0.35580840706825256, -0.06012189760804176, -0.27745288610458374,
      -0.07905983179807663, -0.08732622861862183},
     {-0.19405019283294678, -0.18842464685440063, -0.09401652216911316,
      0.23905763030052185, 0.05703859031200409}},
    {{-0.13019870221614838, -0.22174425423145294, 0.030470993369817734,
      -0.14234666526317596, 0.18759068846702576},
     {0.10135795921087265, 0.03634537383913994, 0.07430978119373322,
      -0.10196082293987274, 0.3112074136734009},
     {0.26490870118141174, 0.4096357226371765, 0.49006330966949463,
      0.37335699796676636, 0.4450640082359314},
     {-0.10020194947719574, 0.2382875233888626, 0.4196811020374298,
      0.16376230120658875, -0.04333081096410751},
     {0.05255543068051338, -0.10229891538619995, -0.2743183970451355,
      -0.2947344183921814, -0.0271352119743824}}};

float conv1_b[20] = {
    -0.0562537126243, -0.406026005745,  -0.454664617777, -0.342895060778,
    -0.310131371021,  -0.0380865186453, 0.101328969002,  -0.418930977583,
    0.106665015221,   -0.048942822963,  0.029657477513,  -0.0396010801196,
    0.419171929359,   -0.229127764702,  -0.24251511693,  -0.244308516383,
    0.0701102465391,  -0.11550667882,   -0.172179251909, -0.356886476278};
