#include "../fixed.h"

signed short conv1_w[20][5][5] = {
    {{F_LIT(0.34621232748031616), F_LIT(0.0878790020942688),
      F_LIT(0.16568489372730255), F_LIT(-0.09044696390628815),
      F_LIT(0.24364528059959412)},
     {F_LIT(0.21956107020378113), F_LIT(-0.1023075059056282),
      F_LIT(0.10537970811128616), F_LIT(-0.3159942924976349),
      F_LIT(-0.08763117343187332)},
     {F_LIT(0.2302238941192627), F_LIT(-0.02378307655453682),
      F_LIT(0.4062311351299286), F_LIT(-0.24017997086048126),
      F_LIT(0.014710540883243084)},
     {F_LIT(0.19076457619667053), F_LIT(0.28113222122192383),
      F_LIT(0.27477824687957764), F_LIT(0.2551942467689514),
      F_LIT(-0.3083096146583557)},
     {F_LIT(-0.30208620429039), F_LIT(-0.31136220693588257),
      F_LIT(0.13127776980400085), F_LIT(0.12878242135047913),
      F_LIT(0.13706842064857483)}},
    {{F_LIT(-0.2731998860836029), F_LIT(0.3629484176635742),
      F_LIT(0.2356482744216919), F_LIT(-0.03030705638229847),
      F_LIT(-0.24397696554660797)},
     {F_LIT(0.3269728422164917), F_LIT(-0.24493750929832458),
      F_LIT(-0.03635135293006897), F_LIT(-0.021695582196116447),
      F_LIT(-0.29689520597457886)},
     {F_LIT(-0.0027702366933226585), F_LIT(0.06320841610431671),
      F_LIT(0.09732615202665329), F_LIT(-0.19787189364433289),
      F_LIT(0.2639320194721222)},
     {F_LIT(0.2942921221256256), F_LIT(0.0026612032670527697),
      F_LIT(-0.07701278477907181), F_LIT(-0.15759536623954773),
      F_LIT(-0.155365988612175)},
     {F_LIT(0.06810975819826126), F_LIT(-0.12891066074371338),
      F_LIT(-0.14437030255794525), F_LIT(-0.1105126366019249),
      F_LIT(-0.3620786964893341)}},
    {{F_LIT(0.24740710854530334), F_LIT(-0.27472174167633057),
      F_LIT(0.39319396018981934), F_LIT(0.08284369856119156),
      F_LIT(0.09736686944961548)},
     {F_LIT(0.4051695764064789), F_LIT(-0.1263088881969452),
      F_LIT(0.34766992926597595), F_LIT(0.33461883664131165),
      F_LIT(0.2411697953939438)},
     {F_LIT(0.33795487880706787), F_LIT(0.45493462681770325),
      F_LIT(0.43139320611953735), F_LIT(0.5414860248565674),
      F_LIT(0.09206054359674454)},
     {F_LIT(0.009410209022462368), F_LIT(-0.0533175989985466),
      F_LIT(0.17906223237514496), F_LIT(0.017436766996979713),
      F_LIT(0.35843440890312195)},
     {F_LIT(0.03167455270886421), F_LIT(-0.29727715253829956),
      F_LIT(0.31414398550987244), F_LIT(0.36236676573753357),
      F_LIT(0.06622796505689621)}},
    {{F_LIT(-0.07778732478618622), F_LIT(0.25113049149513245),
      F_LIT(0.010489819571375847), F_LIT(0.16147246956825256),
      F_LIT(0.1743052452802658)},
     {F_LIT(-0.29422715306282043), F_LIT(-0.15609559416770935),
      F_LIT(0.355973482131958), F_LIT(0.09281743317842484),
      F_LIT(-0.003977987915277481)},
     {F_LIT(0.06054908409714699), F_LIT(0.2228928953409195),
      F_LIT(0.4202999770641327), F_LIT(0.46233630180358887),
      F_LIT(0.30315059423446655)},
     {F_LIT(0.11444032192230225), F_LIT(-0.14103437960147858),
      F_LIT(0.17467443645000458), F_LIT(0.1518409103155136),
      F_LIT(-0.22680778801441193)},
     {F_LIT(0.32280680537223816), F_LIT(0.3427789807319641),
      F_LIT(0.2638184130191803), F_LIT(0.09712167084217072),
      F_LIT(-0.3288629651069641)}},
    {{F_LIT(0.13356894254684448), F_LIT(0.272869735956192),
      F_LIT(0.22926628589630127), F_LIT(0.4258362352848053),
      F_LIT(0.0018979625310748816)},
     {F_LIT(0.32521024346351624), F_LIT(0.5376840233802795),
      F_LIT(0.29585906863212585), F_LIT(0.20630259811878204),
      F_LIT(0.2431352734565735)},
     {F_LIT(0.16196209192276), F_LIT(0.4666069447994232),
      F_LIT(0.14213785529136658), F_LIT(0.5138275623321533),
      F_LIT(0.3749248683452606)},
     {F_LIT(0.24541427195072174), F_LIT(-0.2767251431941986),
      F_LIT(0.06973163038492203), F_LIT(-0.29618585109710693),
      F_LIT(0.27169081568717957)},
     {F_LIT(-0.4757850766181946), F_LIT(-0.09280623495578766),
      F_LIT(-0.10682310163974762), F_LIT(0.19961583614349365),
      F_LIT(-0.00036679921322502196)}},
    {{F_LIT(0.09097837656736374), F_LIT(-0.054678164422512054),
      F_LIT(-0.2911069095134735), F_LIT(0.09252172708511353),
      F_LIT(0.2379319816827774)},
     {F_LIT(-0.0023128942120820284), F_LIT(0.3975238502025604),
      F_LIT(0.438854455947876), F_LIT(0.32102471590042114),
      F_LIT(0.3838796317577362)},
     {F_LIT(0.21441403031349182), F_LIT(-0.15155646204948425),
      F_LIT(0.41524916887283325), F_LIT(-0.21045106649398804),
      F_LIT(0.4186512529850006)},
     {F_LIT(-0.035729940980672836), F_LIT(0.12576913833618164),
      F_LIT(0.06888946145772934), F_LIT(0.08785375207662582),
      F_LIT(-0.20535674691200256)},
     {F_LIT(-0.08961673080921173), F_LIT(0.14493517577648163),
      F_LIT(-0.21101069450378418), F_LIT(-0.3163246810436249),
      F_LIT(0.09965872019529343)}},
    {{F_LIT(0.10211000591516495), F_LIT(0.3392898440361023),
      F_LIT(-0.3035909831523895), F_LIT(0.10409985482692719),
      F_LIT(-0.03105637989938259)},
     {F_LIT(-0.24135008454322815), F_LIT(-0.30538222193717957),
      F_LIT(-0.32994964718818665), F_LIT(-0.10274152457714081),
      F_LIT(-0.3132610023021698)},
     {F_LIT(0.002378526609390974), F_LIT(-0.059261519461870193),
      F_LIT(0.04829619452357292), F_LIT(-0.2990938723087311),
      F_LIT(-0.3925588130950928)},
     {F_LIT(0.3084876239299774), F_LIT(-0.1000346764922142),
      F_LIT(0.011876880191266537), F_LIT(-0.056879304349422455),
      F_LIT(-0.10603894293308258)},
     {F_LIT(0.21621844172477722), F_LIT(-0.34068453311920166),
      F_LIT(-0.34008172154426575), F_LIT(-0.14580172300338745),
      F_LIT(-0.07878772169351578)}},
    {{F_LIT(-0.05768236145377159), F_LIT(0.05012689158320427),
      F_LIT(-0.3999781608581543), F_LIT(-0.20458775758743286),
      F_LIT(-0.377400279045105)},
     {F_LIT(-0.33291271328926086), F_LIT(-0.10185088962316513),
      F_LIT(0.06565441936254501), F_LIT(0.012884742580354214),
      F_LIT(-0.13320906460285187)},
     {F_LIT(-0.06845126301050186), F_LIT(-0.3619992434978485),
      F_LIT(0.17428675293922424), F_LIT(0.2269544005393982),
      F_LIT(-0.3490891456604004)},
     {F_LIT(0.16752292215824127), F_LIT(-0.15831224620342255),
      F_LIT(-0.15648597478866577), F_LIT(0.40654149651527405),
      F_LIT(0.2354598343372345)},
     {F_LIT(0.2112945169210434), F_LIT(0.2406792789697647),
      F_LIT(0.42497262358665466), F_LIT(0.4561746120452881),
      F_LIT(0.1695997565984726)}},
    {{F_LIT(-0.38589343428611755), F_LIT(0.15330462157726288),
      F_LIT(-0.16745108366012573), F_LIT(-0.19547711312770844),
      F_LIT(0.04891262948513031)},
     {F_LIT(0.17960211634635925), F_LIT(-0.18791955709457397),
      F_LIT(0.1480799913406372), F_LIT(0.3949716091156006),
      F_LIT(-0.0048888796009123325)},
     {F_LIT(0.008531808853149414), F_LIT(0.29795655608177185),
      F_LIT(0.3373669683933258), F_LIT(0.13303931057453156),
      F_LIT(0.1265190690755844)},
     {F_LIT(-0.07768610864877701), F_LIT(0.5310244560241699),
      F_LIT(0.34474480152130127), F_LIT(0.4516166150569916),
      F_LIT(-0.21073466539382935)},
     {F_LIT(0.18238459527492523), F_LIT(0.4035881459712982),
      F_LIT(0.21838416159152985), F_LIT(0.2394731044769287),
      F_LIT(-0.08999752998352051)}},
    {{F_LIT(-0.21548324823379517), F_LIT(0.012083031237125397),
      F_LIT(-0.2823471128940582), F_LIT(-0.20386460423469543),
      F_LIT(-0.197132408618927)},
     {F_LIT(-0.20136260986328125), F_LIT(0.15766414999961853),
      F_LIT(0.2726253569126129), F_LIT(-0.09864615648984909),
      F_LIT(-0.07748228311538696)},
     {F_LIT(0.11022229492664337), F_LIT(-0.15349434316158295),
      F_LIT(-0.14545120298862457), F_LIT(-0.18296779692173004),
      F_LIT(0.4094635546207428)},
     {F_LIT(-0.332093209028244), F_LIT(-0.08988773077726364),
      F_LIT(-0.26232224702835083), F_LIT(0.38458022475242615),
      F_LIT(0.41767191886901855)},
     {F_LIT(0.08229588717222214), F_LIT(-0.12242500483989716),
      F_LIT(0.24429813027381897), F_LIT(0.3069109320640564),
      F_LIT(0.18123027682304382)}},
    {{F_LIT(-0.25377070903778076), F_LIT(0.01617979258298874),
      F_LIT(0.09110148996114731), F_LIT(0.2603234052658081),
      F_LIT(0.28371885418891907)},
     {F_LIT(-0.25754907727241516), F_LIT(-0.0674598440527916),
      F_LIT(0.0011007525026798248), F_LIT(0.16312897205352783),
      F_LIT(-0.24812497198581696)},
     {F_LIT(0.18459747731685638), F_LIT(-0.06658854335546494),
      F_LIT(0.16414889693260193), F_LIT(-0.06485065072774887),
      F_LIT(-0.37263453006744385)},
     {F_LIT(-0.1275092363357544), F_LIT(-0.10655315220355988),
      F_LIT(-0.10924337804317474), F_LIT(0.05204940214753151),
      F_LIT(-0.3594140112400055)},
     {F_LIT(0.21926116943359375), F_LIT(-0.13598155975341797),
      F_LIT(-0.27906909584999084), F_LIT(0.15934808552265167),
      F_LIT(0.06638538092374802)}},
    {{F_LIT(-0.2768808603286743), F_LIT(0.34028321504592896),
      F_LIT(-0.27807730436325073), F_LIT(0.09439114481210709),
      F_LIT(0.07116919755935669)},
     {F_LIT(0.30237242579460144), F_LIT(-0.09766978770494461),
      F_LIT(0.14092746376991272), F_LIT(0.341237872838974),
      F_LIT(-0.052567820996046066)},
     {F_LIT(0.33358410000801086), F_LIT(-0.04217160865664482),
      F_LIT(0.122625932097435), F_LIT(-0.10297548025846481),
      F_LIT(-0.05901465564966202)},
     {F_LIT(-0.1631171852350235), F_LIT(0.19666960835456848),
      F_LIT(0.3962625563144684), F_LIT(0.087384432554245),
      F_LIT(0.31578242778778076)},
     {F_LIT(0.11907290667295456), F_LIT(0.3551032841205597),
      F_LIT(0.20722466707229614), F_LIT(-0.23799796402454376),
      F_LIT(-0.2589781880378723)}},
    {{F_LIT(-0.07090491056442261), F_LIT(-0.03887270390987396),
      F_LIT(-0.1825772076845169), F_LIT(-0.32864001393318176),
      F_LIT(-0.29732760787010193)},
     {F_LIT(-0.2511322498321533), F_LIT(0.18487459421157837),
      F_LIT(0.2600667178630829), F_LIT(0.07938650250434875),
      F_LIT(0.23327530920505524)},
     {F_LIT(0.3333064913749695), F_LIT(0.2740069627761841),
      F_LIT(-0.12307324260473251), F_LIT(0.13191290199756622),
      F_LIT(0.05281047523021698)},
     {F_LIT(0.06806166470050812), F_LIT(0.059474483132362366),
      F_LIT(0.38667577505111694), F_LIT(-0.04887718707323074),
      F_LIT(-0.29816803336143494)},
     {F_LIT(0.4069235324859619), F_LIT(-0.17589499056339264),
      F_LIT(-0.14434346556663513), F_LIT(-0.28474780917167664),
      F_LIT(-0.3975510895252228)}},
    {{F_LIT(0.18015801906585693), F_LIT(-0.05837801843881607),
      F_LIT(-0.0015626964159309864), F_LIT(-0.2954511344432831),
      F_LIT(0.024351760745048523)},
     {F_LIT(-0.3178962469100952), F_LIT(-0.07615493983030319),
      F_LIT(0.2808328866958618), F_LIT(-0.28903600573539734),
      F_LIT(0.06901013851165771)},
     {F_LIT(0.19681090116500854), F_LIT(0.3163081109523773),
      F_LIT(-0.18600313365459442), F_LIT(-0.2586697041988373),
      F_LIT(-0.3097902834415436)},
     {F_LIT(-0.12667222321033478), F_LIT(0.15039891004562378),
      F_LIT(0.27889418601989746), F_LIT(-0.298860102891922),
      F_LIT(0.2933461666107178)},
     {F_LIT(0.38548508286476135), F_LIT(0.06063119322061539),
      F_LIT(0.05764234438538551), F_LIT(0.2800343632698059),
      F_LIT(-0.2867053747177124)}},
    {{F_LIT(-0.09737128764390945), F_LIT(0.038938552141189575),
      F_LIT(-0.15701699256896973), F_LIT(0.012157640419900417),
      F_LIT(0.2666862905025482)},
     {F_LIT(0.014350967481732368), F_LIT(-0.3776308596134186),
      F_LIT(-0.22128328680992126), F_LIT(-0.13130462169647217),
      F_LIT(-0.105350062251091)},
     {F_LIT(-0.17127485573291779), F_LIT(-0.13612408936023712),
      F_LIT(0.2448505014181137), F_LIT(-0.013761474750936031),
      F_LIT(-0.09599073976278305)},
     {F_LIT(-0.2811833918094635), F_LIT(-0.2697640061378479),
      F_LIT(0.2184952199459076), F_LIT(-0.06983152776956558),
      F_LIT(0.18039745092391968)},
     {F_LIT(-0.3384254276752472), F_LIT(0.019259268417954445),
      F_LIT(0.12816987931728363), F_LIT(-0.08766626566648483),
      F_LIT(0.19616030156612396)}},
    {{F_LIT(-0.16317103803157806), F_LIT(0.19799357652664185),
      F_LIT(0.03689297288656235), F_LIT(0.09120245277881622),
      F_LIT(-0.2641369700431824)},
     {F_LIT(0.2500336766242981), F_LIT(-0.2366597205400467),
      F_LIT(-0.19717198610305786), F_LIT(-0.026699934154748917),
      F_LIT(-0.2759190797805786)},
     {F_LIT(0.4218444526195526), F_LIT(-0.00670772697776556),
      F_LIT(0.044407814741134644), F_LIT(0.10861765593290329),
      F_LIT(-0.09678618609905243)},
     {F_LIT(0.31187427043914795), F_LIT(0.18984834849834442),
      F_LIT(0.09413312375545502), F_LIT(0.09543616324663162),
      F_LIT(0.07668355107307434)},
     {F_LIT(-0.3019886612892151), F_LIT(-0.09814342111349106),
      F_LIT(-0.15006276965141296), F_LIT(0.2278444916009903),
      F_LIT(-0.11916088312864304)}},
    {{F_LIT(0.036213647574186325), F_LIT(-0.18452595174312592),
      F_LIT(-0.26769331097602844), F_LIT(-0.20065757632255554),
      F_LIT(-0.04498444125056267)},
     {F_LIT(0.013698468916118145), F_LIT(0.3143444359302521),
      F_LIT(0.34238559007644653), F_LIT(0.3645765483379364),
      F_LIT(0.3288120925426483)},
     {F_LIT(-0.1458689272403717), F_LIT(0.13728854060173035),
      F_LIT(-0.29527485370635986), F_LIT(-0.0018342456314712763),
      F_LIT(0.3252853453159332)},
     {F_LIT(0.2405119091272354), F_LIT(-0.328275591135025),
      F_LIT(0.13795575499534607), F_LIT(-0.39090070128440857),
      F_LIT(-0.31031325459480286)},
     {F_LIT(0.17240731418132782), F_LIT(-0.0547555647790432),
      F_LIT(0.2296229898929596), F_LIT(-0.06188511848449707),
      F_LIT(-0.3001479506492615)}},
    {{F_LIT(-0.2594062387943268), F_LIT(-0.06755341589450836),
      F_LIT(-0.09368628263473511), F_LIT(-0.10779762268066406),
      F_LIT(-0.2991134822368622)},
     {F_LIT(-0.015617521479725838), F_LIT(-0.377113401889801),
      F_LIT(0.14992783963680267), F_LIT(-0.2154916226863861),
      F_LIT(0.23554979264736176)},
     {F_LIT(0.1810900717973709), F_LIT(-0.3224443793296814),
      F_LIT(0.15573930740356445), F_LIT(-0.27605730295181274),
      F_LIT(-0.16296780109405518)},
     {F_LIT(0.18844710290431976), F_LIT(0.29227733612060547),
      F_LIT(-0.08930061012506485), F_LIT(-0.11565297096967697),
      F_LIT(-0.3877493441104889)},
     {F_LIT(-0.19203341007232666), F_LIT(-0.33877652883529663),
      F_LIT(-0.23212957382202148), F_LIT(-0.25787243247032166),
      F_LIT(0.24506895244121552)}},
    {{F_LIT(0.22355961799621582), F_LIT(0.32211849093437195),
      F_LIT(-0.24128566682338715), F_LIT(-0.18156659603118896),
      F_LIT(0.2518409490585327)},
     {F_LIT(-0.12818259000778198), F_LIT(-0.0046480391174554825),
      F_LIT(0.2310495376586914), F_LIT(0.2781096398830414),
      F_LIT(-0.28412896394729614)},
     {F_LIT(-0.006361410953104496), F_LIT(0.1077205091714859),
      F_LIT(0.031099068000912666), F_LIT(0.2952771484851837),
      F_LIT(0.08643242716789246)},
     {F_LIT(0.16689139604568481), F_LIT(-0.16871362924575806),
      F_LIT(0.4053591787815094), F_LIT(0.035494834184646606),
      F_LIT(0.1457875818014145)},
     {F_LIT(-0.0704960972070694), F_LIT(0.15863274037837982),
      F_LIT(-0.11064374446868896), F_LIT(0.2461584210395813),
      F_LIT(0.24289260804653168)}},
    {{F_LIT(0.024182626977562904), F_LIT(-0.20449237525463104),
      F_LIT(-0.19923749566078186), F_LIT(-0.1853170245885849),
      F_LIT(0.22744080424308777)},
     {F_LIT(0.15880407392978668), F_LIT(-0.08234958350658417),
      F_LIT(0.2976946234703064), F_LIT(0.3969491720199585),
      F_LIT(0.4824523627758026)},
     {F_LIT(0.13899369537830353), F_LIT(0.45309722423553467),
      F_LIT(-0.1033773124217987), F_LIT(0.325909286737442),
      F_LIT(0.5197665095329285)},
     {F_LIT(0.31755882501602173), F_LIT(-0.217337965965271),
      F_LIT(0.008641036227345467), F_LIT(0.1936962604522705),
      F_LIT(0.33289071917533875)},
     {F_LIT(0.19765512645244598), F_LIT(0.14453808963298798),
      F_LIT(0.16336902976036072), F_LIT(0.3112713098526001),
      F_LIT(0.24224881827831268)}}};

signed short conv1_b[20] = {
    F_LIT(-0.252337366343),  F_LIT(0.074097238481),  F_LIT(-0.472141087055),
    F_LIT(-0.199907168746),  F_LIT(-0.757751405239), F_LIT(-0.363358318806),
    F_LIT(0.178884595633),   F_LIT(-0.109591558576), F_LIT(-0.342612802982),
    F_LIT(-0.174884155393),  F_LIT(0.0345786474645), F_LIT(-0.168178126216),
    F_LIT(-0.0904902517796), F_LIT(-0.120869912207), F_LIT(0.0088405283168),
    F_LIT(-0.18399913609),   F_LIT(-0.171790018678), F_LIT(0.170151799917),
    F_LIT(-0.284748405218),  F_LIT(-0.329932302237)};
